-3.668485283851623535e-01,-4.451412856578826904e-01,-3.872905671596527100e-01,-4.163818359375000000e-01,2.392559796571731567e-01,-4.654278755187988281e-01,-2.308482527732849121e-01,6.753935217857360840e-01,-9.997096657752990723e-02,-3.601028323173522949e-01,-1.538612395524978638e-01,-1.303337216377258301e-01,-4.703181087970733643e-01,2.304349094629287720e-02,3.665894865989685059e-01,2.932176291942596436e-01,-4.305573701858520508e-01,4.332254827022552490e-01,2.247373312711715698e-01,3.657354712486267090e-01,5.014540553092956543e-01,-3.608130216598510742e-01,-8.526372909545898438e-01,-6.365488767623901367e-01,8.708117157220840454e-02,-3.792244791984558105e-01,1.303839802742004395e+00,5.289383530616760254e-01,-2.420298114884644747e-04,-5.549297928810119629e-01,-3.556252419948577881e-01,-5.094403028488159180e-01,-3.161340355873107910e-01,1.488139182329177856e-01,8.234388828277587891e-01,-8.075207471847534180e-01,3.741057813167572021e-01,3.991439044475555420e-01,2.893794327974319458e-02,-1.991874277591705322e-01,-6.521789729595184326e-02,-7.668891549110412598e-02,-2.450585812330245972e-01,-2.027281373739242554e-01,-2.492751181125640869e-02
-3.795965909957885742e-01,-9.393192082643508911e-02,-3.339339792728424072e-01,-1.851263791322708130e-01,-2.448780462145805359e-02,-1.372232586145401001e-01,-6.976311802864074707e-01,6.108441948890686035e-01,2.393692582845687866e-01,-2.587524652481079102e-01,-1.551047414541244507e-01,-3.530722483992576599e-02,-2.950825355947017670e-02,8.198115974664688110e-03,-4.153494536876678467e-02,2.436126209795475006e-02,-2.755747735500335693e-01,2.083043158054351807e-01,-2.104455530643463135e-01,1.801681965589523315e-01,-7.831546664237976074e-02,-3.077960312366485596e-01,-1.575882732868194580e-01,-5.263080596923828125e-01,-5.188438668847084045e-02,9.870732575654983521e-02,7.400277853012084961e-01,7.219424247741699219e-01,2.724145725369453430e-02,-3.100907504558563232e-01,7.735054194927215576e-02,-4.835530519485473633e-01,-2.831087708473205566e-01,3.951591998338699341e-02,6.099447011947631836e-01,-4.219785034656524658e-01,5.425222516059875488e-01,-8.588355034589767456e-03,-6.274949759244918823e-02,-1.861366480588912964e-01,-1.955763995647430420e-01,-5.777626857161521912e-02,-3.114601969718933105e-01,-2.643432319164276123e-01,1.668391376733779907e-01
1.992721855640411377e-01,3.293320536613464355e-01,-5.324574932456016541e-02,6.060879677534103394e-02,-4.292203485965728760e-01,9.664802998304367065e-02,-1.573286578059196472e-02,-7.441799640655517578e-01,3.734437823295593262e-01,1.419200897216796875e-01,-3.688115999102592468e-02,2.773162163794040680e-02,-1.457186788320541382e-01,1.219672039151191711e-01,-2.848414778709411621e-01,-5.004724860191345215e-01,1.741003692150115967e-01,-3.819634914398193359e-01,-6.557618975639343262e-01,1.920837163925170898e-01,4.306298792362213135e-01,-1.362256240099668503e-02,-8.131656050682067871e-02,-6.016770601272583008e-01,-1.497807502746582031e-01,1.608975827693939209e-01,8.040028065443038940e-02,2.748548984527587891e-01,-4.431749284267425537e-01,-7.739750295877456665e-02,1.993715167045593262e-01,1.960842460393905640e-01,9.668698906898498535e-02,-4.165723621845245361e-01,-3.546285629272460938e-01,4.218731448054313660e-02,-1.190106391906738281e+00,-5.222591385245323181e-02,-2.645436823368072510e-01,-6.717126816511154175e-02,-3.046222031116485596e-02,4.346480220556259155e-02,1.952153146266937256e-01,-1.727336198091506958e-01,-1.839617639780044556e-01
4.028980433940887451e-01,1.002687662839889526e-01,1.541127711534500122e-01,2.200294882059097290e-01,-2.775674164295196533e-01,4.036417305469512939e-01,-2.455368041992187500e-01,-4.293290376663208008e-01,1.895807236433029175e-01,4.781882092356681824e-02,-1.244199350476264954e-01,-2.010893523693084717e-01,-3.004582226276397705e-01,3.152622282505035400e-02,-4.897288084030151367e-01,-3.438035547733306885e-01,3.716047406196594238e-01,-5.893974304199218750e-01,-4.865900278091430664e-01,-1.971896365284919739e-02,2.752304077148437500e-01,1.820419728755950928e-01,-1.429632753133773804e-01,-5.230423808097839355e-01,-2.555062472820281982e-01,-2.266572862863540649e-01,-3.196094930171966553e-02,-3.023254275321960449e-01,-3.510797917842864990e-01,3.766902089118957520e-01,6.278424710035324097e-02,-1.285389363765716553e-01,1.261002719402313232e-01,-1.258534938097000122e-01,-4.770936667919158936e-01,-2.246112376451492310e-01,-3.724601268768310547e-01,3.615786507725715637e-02,-1.266165524721145630e-01,-1.988555490970611572e-01,-1.480872929096221924e-01,-1.314702779054641724e-01,2.809504568576812744e-01,-9.104346483945846558e-02,-5.174902677536010742e-01
-1.736040860414505005e-01,1.866735517978668213e-02,3.525045514106750488e-02,-2.267878800630569458e-01,-5.365090370178222656e-01,-2.156482823193073273e-02,-8.167067766189575195e-01,6.609219312667846680e-01,2.704142406582832336e-02,-2.751585096120834351e-02,-1.209456399083137512e-01,-2.340312153100967407e-01,-2.380646914243698120e-01,1.962962746620178223e-01,-1.215203776955604553e-01,5.592932179570198059e-02,-1.768615990877151489e-01,1.942692697048187256e-01,2.772590816020965576e-01,-3.033865094184875488e-01,4.895566105842590332e-01,9.885653853416442871e-03,-4.289326667785644531e-01,8.347380161285400391e-01,-1.592074334621429443e-01,-2.021597325801849365e-02,4.266731739044189453e-01,3.518496453762054443e-01,1.425801068544387817e-01,-1.686225533485412598e-01,-1.684476435184478760e-01,-3.046108782291412354e-01,-1.178672723472118378e-02,-2.337254136800765991e-01,6.794503331184387207e-01,-2.719942331314086914e-01,1.916340887546539307e-01,4.299423992633819580e-01,-3.233625888824462891e-01,-5.669049173593521118e-02,-1.218374073505401611e-01,-1.113847047090530396e-01,-9.742399305105209351e-02,-1.816211193799972534e-01,4.660203456878662109e-01
-4.068351984024047852e-01,-7.062396407127380371e-02,-4.029116034507751465e-01,-3.085950314998626709e-01,5.865179747343063354e-02,-2.989895641803741455e-01,4.176142439246177673e-02,2.759857177734375000e-01,-9.157171100378036499e-02,-1.982761621475219727e-01,1.523189693689346313e-01,-1.724505871534347534e-01,-1.093606352806091309e-01,-1.548161804676055908e-01,9.199824184179306030e-02,-9.746206551790237427e-02,-4.044515490531921387e-01,-2.631681272760033607e-03,-1.828916929662227631e-02,-1.426938474178314209e-01,-1.887742280960083008e-01,-1.647924482822418213e-01,-3.831139802932739258e-01,-4.732615873217582703e-02,-3.577008470892906189e-02,-4.266546573489904404e-03,3.514793813228607178e-01,2.948864549398422241e-02,1.203853040933609009e-01,-1.564901918172836304e-01,-2.430922351777553558e-02,-8.421979844570159912e-02,-1.332972794771194458e-01,1.017871648073196411e-01,2.478942126035690308e-01,-3.417834341526031494e-01,2.314574867486953735e-01,-9.081363677978515625e-02,1.442056149244308472e-01,6.356172263622283936e-02,-1.776382625102996826e-01,1.053829584270715714e-02,-1.728590875864028931e-01,-1.589813679456710815e-01,-1.348464637994766235e-01
3.374243080615997314e-01,-4.876775443553924561e-01,3.010567128658294678e-01,1.912458240985870361e-01,-2.184179984033107758e-02,4.749685525894165039e-01,-5.774084851145744324e-02,5.257948040962219238e-01,-9.360393881797790527e-02,-9.140320122241973877e-03,2.880459427833557129e-01,2.539378106594085693e-01,2.418175041675567627e-01,-1.840409487485885620e-01,7.250716537237167358e-02,4.967654049396514893e-01,3.694734275341033936e-01,2.193268239498138428e-01,6.208419799804687500e-01,-7.920798063278198242e-01,-2.702808678150177002e-01,3.667360544204711914e-01,4.935603439807891846e-01,1.059656858444213867e+00,6.243007630109786987e-02,7.486932445317506790e-03,-2.870791852474212646e-01,-6.307065486907958984e-01,2.644917368888854980e-01,2.500108182430267334e-01,-5.487300157546997070e-01,1.284886002540588379e-01,4.074028432369232178e-01,2.833910286426544189e-01,4.568173587322235107e-01,3.225712478160858154e-01,-2.926606684923171997e-03,4.506066739559173584e-01,1.268603205680847168e+00,-6.732130795717239380e-02,1.925175189971923828e-01,8.590659499168395996e-02,4.176033735275268555e-01,2.039679735898971558e-01,5.595186352729797363e-01
-3.101825341582298279e-02,-2.272699028253555298e-01,4.425637051463127136e-02,-1.756430119276046753e-01,6.824901700019836426e-01,-2.192644774913787842e-01,4.884115159511566162e-01,7.752977609634399414e-01,6.878314167261123657e-02,-7.587186247110366821e-02,1.354556977748870850e-01,-8.023277670145034790e-02,-1.436458975076675415e-01,-6.885548830032348633e-01,3.309203684329986572e-01,3.465816378593444824e-01,-1.327091921120882034e-02,1.409504264593124390e-01,4.799049198627471924e-01,-2.970594167709350586e-01,-3.390178978443145752e-01,-2.211799770593643188e-01,-4.524968862533569336e-01,1.384258121252059937e-01,4.229280166327953339e-03,8.937263488769531250e-02,2.506064176559448242e-01,-2.797962427139282227e-01,6.487379968166351318e-02,-1.150336340069770813e-01,-3.255158066749572754e-01,-1.225802600383758545e-01,-8.253707736730575562e-02,2.814196050167083740e-01,5.235235095024108887e-01,-2.655341923236846924e-01,2.775905728340148926e-01,9.602233022451400757e-02,2.289684116840362549e-01,-1.079221516847610474e-01,-3.068674802780151367e-01,-1.770022697746753693e-02,1.612555049359798431e-02,-1.581342667341232300e-01,1.783383786678314209e-01
1.833221614360809326e-01,-4.858243763446807861e-01,3.829139471054077148e-01,1.536566317081451416e-01,1.014110147953033447e-01,1.329990178346633911e-01,-4.944708198308944702e-02,1.205734252929687500e+00,1.529729813337326050e-01,-1.227851808071136475e-01,1.244233027100563049e-01,3.518397361040115356e-02,2.604356408119201660e-01,-4.461771845817565918e-01,1.130117252469062805e-01,1.636873185634613037e-01,2.841968536376953125e-01,2.339525967836380005e-01,5.839433670043945312e-01,2.573152482509613037e-01,-3.947522342205047607e-01,1.054393649101257324e-01,1.124785661697387695e+00,9.173145890235900879e-01,-5.544812884181737900e-03,-1.628519147634506226e-01,-1.183855086565017700e-01,-1.221199706196784973e-01,-2.877446264028549194e-02,1.221897900104522705e-01,-1.099518463015556335e-01,-1.573847234249114990e-01,3.992459177970886230e-01,2.717335149645805359e-02,1.125280261039733887e+00,2.755683101713657379e-02,1.094708561897277832e+00,-7.822091877460479736e-02,8.236553519964218140e-02,-1.308768689632415771e-01,1.724129915237426758e-02,-8.537887781858444214e-02,2.298056930303573608e-01,5.798891559243202209e-02,-3.818171471357345581e-02
2.071558535099029541e-01,-5.814502388238906860e-02,1.442846506834030151e-01,-2.802948839962482452e-02,-1.878263056278228760e-01,2.211453467607498169e-01,-6.181637048721313477e-01,1.270627826452255249e-01,1.715596467256546021e-01,-8.827976137399673462e-02,3.640950843691825867e-02,9.599645435810089111e-02,-4.662685096263885498e-02,-2.021577805280685425e-01,-9.556062519550323486e-02,8.120088279247283936e-02,-1.030549220740795135e-02,-3.465698063373565674e-01,-8.993139117956161499e-02,-8.525694608688354492e-01,4.874339699745178223e-01,7.114960253238677979e-02,-2.546559870243072510e-01,-4.204074442386627197e-01,5.345018580555915833e-02,-5.071280524134635925e-02,3.181829750537872314e-01,-1.240812912583351135e-01,2.589705288410186768e-01,1.391697768121957779e-02,-3.576367795467376709e-01,1.856208294630050659e-01,8.314923942089080811e-02,-5.903708934783935547e-02,-1.249525770545005798e-01,-1.118614226579666138e-01,-4.819052815437316895e-01,2.756341099739074707e-01,4.329474270343780518e-01,-2.352093346416950226e-02,1.285698711872100830e-01,1.342518627643585205e-02,2.426288649439811707e-02,5.817507579922676086e-02,2.597417235374450684e-01
2.470203489065170288e-01,1.126080378890037537e-01,1.416008025407791138e-01,1.751355081796646118e-01,-1.625517010688781738e-01,2.904416322708129883e-01,-4.025388360023498535e-01,-1.682782024145126343e-01,-1.176458075642585754e-01,6.826201826333999634e-02,2.607324346899986267e-02,1.156626641750335693e-02,1.224298588931560516e-02,-1.064839437603950500e-01,8.537747710943222046e-02,5.767672136425971985e-02,2.578926682472229004e-01,-3.404095023870468140e-02,-9.751586616039276123e-02,3.302641957998275757e-02,1.951150447130203247e-01,2.547488212585449219e-01,2.003344744443893433e-01,-2.622629888355731964e-02,7.404559105634689331e-02,1.832828158512711525e-03,-1.309236735105514526e-01,-1.368288248777389526e-01,-3.542956709861755371e-02,2.901027798652648926e-01,8.469619788229465485e-03,1.554140001535415649e-01,2.492776513099670410e-01,-7.728914171457290649e-02,-1.638827472925186157e-02,3.458823561668395996e-01,-4.835283383727073669e-03,3.880922868847846985e-02,-2.025567591190338135e-01,5.110418051481246948e-02,1.593433767557144165e-01,2.241996377706527710e-01,1.662191450595855713e-01,1.446536779403686523e-01,-4.153371229767799377e-02
-3.358411788940429688e-01,6.035839393734931946e-02,-2.559337317943572998e-01,-2.807434499263763428e-01,5.281337723135948181e-02,-3.210289180278778076e-01,1.048212647438049316e-01,3.577652573585510254e-02,-1.033960059285163879e-01,-1.187945157289505005e-01,2.606285177171230316e-02,-2.051551043987274170e-01,-2.211173325777053833e-01,1.949467509984970093e-01,9.423290938138961792e-02,8.169420063495635986e-03,-3.009938001632690430e-01,1.189086064696311951e-01,1.531817764043807983e-02,2.277867048978805542e-01,-1.329821646213531494e-01,-9.384812414646148682e-02,-2.965778112411499023e-01,-6.032392382621765137e-02,-1.144018992781639099e-01,-2.640103362500667572e-02,1.322387903928756714e-01,2.891077995300292969e-01,-2.100438028573989868e-01,-2.702917456626892090e-01,-1.762619987130165100e-02,-2.921925187110900879e-01,-1.934145241975784302e-01,-3.830979391932487488e-02,1.470743268728256226e-01,-7.494355738162994385e-02,2.181228995323181152e-01,-2.208493053913116455e-01,-1.883902698755264282e-01,-1.049308851361274719e-01,-2.084327163174748421e-03,1.797006092965602875e-02,-2.933033406734466553e-01,-4.038504883646965027e-02,-9.675629436969757080e-02
7.923664152622222900e-02,2.661476135253906250e-01,-1.573473960161209106e-01,-1.248441562056541443e-01,-4.327854514122009277e-01,1.177726909518241882e-01,-2.695900499820709229e-01,-1.409811019897460938e+00,1.729619354009628296e-01,1.043931320309638977e-01,-1.539113521575927734e-01,-8.365830406546592712e-03,9.470412135124206543e-02,4.217283427715301514e-01,-4.366036355495452881e-01,-3.639175295829772949e-01,-9.392440319061279297e-02,-2.661825120449066162e-01,-5.537001490592956543e-01,3.027841150760650635e-01,-3.344212472438812256e-01,-5.191377550363540649e-02,4.301891848444938660e-02,1.598867923021316528e-01,-1.258346885442733765e-01,9.690678119659423828e-02,-6.468260288238525391e-01,1.302707046270370483e-01,-2.706716358661651611e-01,-1.576607376337051392e-01,2.945355474948883057e-01,2.907617390155792236e-01,-1.533653885126113892e-01,-3.055643439292907715e-01,-9.463108777999877930e-01,3.364392220973968506e-01,-7.531654238700866699e-01,-6.187250614166259766e-01,-4.856047332286834717e-01,3.925430402159690857e-02,-8.257124572992324829e-02,6.012099236249923706e-02,-4.764766618609428406e-02,-1.162840947508811951e-01,-5.411189794540405273e-02
2.069337964057922363e-01,2.120768874883651733e-01,1.427344046533107758e-02,2.077624052762985229e-01,7.855489850044250488e-01,1.719110161066055298e-01,1.265323877334594727e+00,-3.030417561531066895e-01,3.591632843017578125e-01,-7.768992334604263306e-02,3.046812117099761963e-01,1.348052471876144409e-01,2.638009488582611084e-01,-2.794488966464996338e-01,-7.566745858639478683e-03,4.527796804904937744e-01,1.820926815271377563e-01,3.285255432128906250e-01,2.785209715366363525e-01,-9.676735103130340576e-02,-7.639741301536560059e-01,1.216767504811286926e-01,-6.762107461690902710e-02,6.754881143569946289e-01,1.194145083427429199e-01,-2.825873903930187225e-03,-5.278643965721130371e-01,-4.400112330913543701e-01,-1.016592904925346375e-01,1.209900900721549988e-01,-1.639522463083267212e-01,3.966505527496337891e-01,1.225512549281120300e-01,4.661356210708618164e-01,-4.668275117874145508e-01,2.616042792797088623e-01,-9.544572234153747559e-02,8.060129731893539429e-02,9.934934973716735840e-01,1.176577657461166382e-01,-1.462998241186141968e-01,-2.813551574945449829e-02,2.550026476383209229e-01,7.204299420118331909e-02,-5.900872498750686646e-02
-2.683830559253692627e-01,-5.094626918435096741e-02,-6.597769260406494141e-02,-2.244960963726043701e-01,1.526814997196197510e-01,-3.119691014289855957e-01,-1.053790301084518433e-01,2.672989964485168457e-01,-1.501118950545787811e-02,-1.501758098602294922e-01,1.365918815135955811e-01,-1.465051919221878052e-01,-1.899567842483520508e-01,-1.445042192935943604e-01,-2.547481842339038849e-02,1.062566563487052917e-01,-1.833500713109970093e-01,8.730819076299667358e-02,2.028169631958007812e-01,-1.168862953782081604e-01,-1.085471883416175842e-01,-5.200615897774696350e-02,-5.562101304531097412e-02,2.119984477758407593e-02,-2.292518690228462219e-02,-3.089083917438983917e-02,4.547986015677452087e-02,-1.973815858364105225e-01,2.365382947027683258e-02,-3.006011545658111572e-01,3.980734571814537048e-02,-2.780120670795440674e-01,-1.670546233654022217e-01,8.152548223733901978e-02,1.196470707654953003e-01,-1.457838267087936401e-01,3.008294701576232910e-01,-1.527967900037765503e-01,1.340438872575759888e-01,7.913131266832351685e-02,-8.763460814952850342e-02,-4.266111925244331360e-02,-1.300652623176574707e-01,-7.817448675632476807e-02,1.397321522235870361e-01
-2.911370694637298584e-01,9.848806075751781464e-03,-3.416278958320617676e-01,-2.801775038242340088e-01,1.722972095012664795e-01,-2.185698747634887695e-01,9.757090359926223755e-02,2.417716383934020996e-01,1.666177064180374146e-01,-8.826537430286407471e-02,4.712054505944252014e-03,-2.480078861117362976e-02,-1.000577583909034729e-01,6.730893999338150024e-02,-2.039420753717422485e-01,1.707134395837783813e-01,-2.854259908199310303e-01,1.312298923730850220e-01,-2.415452385321259499e-03,1.582339592278003693e-02,-2.541655898094177246e-01,-3.052365481853485107e-01,-1.119556650519371033e-01,-1.807618588209152222e-01,4.903269186615943909e-02,1.745910197496414185e-01,1.462635397911071777e-01,1.304131895303726196e-01,2.436346746981143951e-02,-2.212969511747360229e-01,-8.242225646972656250e-02,-3.849944174289703369e-01,-2.442329525947570801e-01,-1.930636167526245117e-02,2.480124682188034058e-01,-2.316826134920120239e-01,3.724801242351531982e-01,6.307687610387802124e-02,2.469104677438735962e-01,-2.594512328505516052e-02,-1.830291748046875000e-01,-1.029381081461906433e-01,-9.576348215341567993e-02,-2.230731844902038574e-01,1.374498009681701660e-01
3.036798536777496338e-02,7.762888073921203613e-01,4.596193507313728333e-02,-1.213046815246343613e-02,-1.077678918838500977e+00,1.426834315061569214e-01,-9.773600101470947266e-01,-3.514602780342102051e-01,-3.239573538303375244e-02,2.921652495861053467e-01,-2.495004981756210327e-01,-1.518484298139810562e-02,1.433851011097431183e-02,1.068827033042907715e+00,-6.225539445877075195e-01,-7.949322462081909180e-01,1.382158100605010986e-01,-7.233753800392150879e-01,-9.014470577239990234e-01,1.240173727273941040e-01,4.479504525661468506e-01,9.159473329782485962e-02,8.246531486511230469e-01,-4.857735037803649902e-01,-9.847617894411087036e-02,3.127954304218292236e-01,-2.490014024078845978e-02,2.400773018598556519e-01,-4.707831740379333496e-01,1.192357316613197327e-01,5.337592959403991699e-01,-2.686129212379455566e-01,1.280636191368103027e-01,-6.671099066734313965e-01,-4.873028695583343506e-01,3.756369352340698242e-01,-2.976496815681457520e-01,2.300876528024673462e-01,-1.191806674003601074e+00,1.229659244418144226e-01,6.162699311971664429e-02,-1.432302445173263550e-01,2.576643601059913635e-02,-1.605135761201381683e-02,-3.564867675304412842e-01
2.911545336246490479e-01,-1.067884489893913269e-01,3.449929058551788330e-01,2.787787914276123047e-01,3.194380179047584534e-02,4.171968102455139160e-01,-4.162994921207427979e-01,-2.945595979690551758e-01,2.970549464225769043e-01,-2.463562637567520142e-01,-4.971025884151458740e-02,-2.373711615800857544e-01,-2.784335911273956299e-01,-6.690162420272827148e-02,-2.581878602504730225e-01,-2.120418846607208252e-01,2.575255036354064941e-01,-1.807808130979537964e-01,-1.038801893591880798e-01,-2.076068073511123657e-01,-7.590475678443908691e-02,3.157260119915008545e-01,-7.473785281181335449e-01,3.003239445388317108e-02,-3.233618736267089844e-01,5.727564916014671326e-02,-3.910157829523086548e-02,-2.609181590378284454e-02,-1.929827183485031128e-01,3.862681090831756592e-01,-1.984067112207412720e-01,-1.238565221428871155e-01,3.959508836269378662e-01,-2.109058350324630737e-01,-3.159314393997192383e-01,-2.287848293781280518e-01,-3.871778249740600586e-01,-7.234802097082138062e-02,1.602338105440139771e-01,-1.368943899869918823e-01,-3.241198658943176270e-01,-2.282461076974868774e-01,2.146452963352203369e-01,-3.457779884338378906e-01,1.576237529516220093e-01
1.721410304307937622e-01,4.700306951999664307e-01,7.828214764595031738e-02,3.877822309732437134e-02,2.728106677532196045e-01,1.078094169497489929e-01,4.018296897411346436e-01,9.327260404825210571e-02,7.680461555719375610e-02,-1.268173307180404663e-01,6.167312711477279663e-02,1.994902044534683228e-01,-2.168366014957427979e-01,3.804785907268524170e-01,-2.369787395000457764e-01,-3.406317904591560364e-02,-2.010676264762878418e-02,1.394186913967132568e-01,4.922745004296302795e-02,-7.830788940191268921e-02,2.744567394256591797e-01,-7.149219512939453125e-02,-5.189017653465270996e-01,3.745388686656951904e-01,1.194290965795516968e-01,5.536830425262451172e-01,4.837105050683021545e-02,6.106229424476623535e-01,3.077479451894760132e-02,1.571137905120849609e-01,2.487299293279647827e-01,4.208989441394805908e-03,-3.690271079540252686e-02,-1.507684439420700073e-01,-1.152632609009742737e-01,1.866970956325531006e-02,-9.539962410926818848e-01,4.778873026371002197e-01,-3.885367512702941895e-02,3.118059337139129639e-01,1.084069982171058655e-01,2.120752446353435516e-02,4.189258441329002380e-02,5.262849852442741394e-02,3.384608626365661621e-01
1.214060783386230469e-01,-1.710273474454879761e-01,1.017047241330146790e-01,1.998731344938278198e-01,-1.558430492877960205e-01,4.130722954869270325e-02,-1.928227990865707397e-01,-9.166845679283142090e-01,3.413302898406982422e-01,-7.462413609027862549e-02,-1.438974887132644653e-01,1.081374436616897583e-01,4.935036227107048035e-02,-7.884095907211303711e-01,9.676497429609298706e-02,-2.015136480331420898e-01,1.430226862430572510e-02,-1.320802867412567139e-01,-2.011393308639526367e-01,2.227502465248107910e-01,2.186269871890544891e-02,-7.715325057506561279e-02,1.739844381809234619e-01,-3.341751098632812500e-01,-4.992280527949333191e-02,-3.707201778888702393e-01,9.709341824054718018e-02,-2.556217312812805176e-01,-3.397504687309265137e-01,2.701647579669952393e-02,6.242039799690246582e-02,2.466383129358291626e-01,1.970362961292266846e-01,2.506671547889709473e-01,-3.874354958534240723e-01,-4.231357574462890625e-02,-1.271308213472366333e-01,-5.335896015167236328e-01,-3.109920322895050049e-01,-7.951122522354125977e-02,-1.594743318855762482e-02,-7.043626159429550171e-02,1.385668814182281494e-01,-1.620546877384185791e-01,-6.925331354141235352e-01
3.637008666992187500e-01,-2.254844270646572113e-02,3.638143241405487061e-01,1.556676626205444336e-01,8.858603239059448242e-02,3.060305714607238770e-01,1.630207747220993042e-01,-1.093313619494438171e-01,1.115175709128379822e-01,6.212402135133743286e-02,9.033603966236114502e-02,2.000952959060668945e-01,5.587881430983543396e-02,4.714204370975494385e-02,-1.225825399160385132e-03,3.509699180722236633e-02,2.029959559440612793e-01,2.800250053405761719e-01,9.469410032033920288e-02,4.357447475194931030e-02,-1.399233341217041016e-01,3.692779839038848877e-01,1.560334861278533936e-01,5.168604850769042969e-01,8.985453099012374878e-02,1.607780456542968750e-01,-4.045844376087188721e-01,-1.923218742012977600e-02,-7.292542606592178345e-02,1.567498892545700073e-01,-1.005108132958412170e-01,2.406190633773803711e-01,1.434621512889862061e-01,2.155989222228527069e-02,-1.552656143903732300e-01,3.210845291614532471e-01,-2.650496959686279297e-01,8.145580440759658813e-02,1.405283063650131226e-01,1.353921648114919662e-02,7.954888790845870972e-02,1.881934553384780884e-01,2.947555780410766602e-01,1.644612699747085571e-01,7.797069847583770752e-02
-4.201568067073822021e-01,7.786856293678283691e-01,-2.241814285516738892e-01,-3.861726224422454834e-01,4.198934882879257202e-02,-3.528476059436798096e-01,-1.516044437885284424e-01,-4.773832559585571289e-01,4.961820542812347412e-01,-9.389632195234298706e-02,-3.354588747024536133e-01,-1.291791498661041260e-01,-2.224296331405639648e-01,7.900345921516418457e-01,-7.573069930076599121e-01,-1.431173384189605713e-01,-3.448072075843811035e-01,-1.604080349206924438e-01,-3.031896352767944336e-01,6.183423995971679688e-01,-1.686665713787078857e-01,-4.596548974514007568e-01,-9.258478283882141113e-01,-6.912650465965270996e-01,-5.941990762948989868e-02,3.940367996692657471e-01,-3.839135169982910156e-02,7.017382383346557617e-01,-3.158423006534576416e-01,-4.092796146869659424e-01,6.209686398506164551e-01,-1.086022704839706421e-01,-4.309588968753814697e-01,-4.354443550109863281e-01,-5.742042064666748047e-01,9.230354428291320801e-02,-4.274537563323974609e-01,-6.097357273101806641e-01,-9.703078866004943848e-01,5.358568206429481506e-02,-3.098101317882537842e-01,-1.436361819505691528e-01,-3.793722987174987793e-01,-4.364129900932312012e-02,-2.439824938774108887e-01
1.103718858212232590e-02,-2.799840569496154785e-01,1.219953894615173340e-01,1.549758017063140869e-01,1.620879769325256348e-02,2.026155292987823486e-01,-1.549232006072998047e-01,4.179788380861282349e-02,-4.212365671992301941e-02,-2.035909742116928101e-01,3.368589282035827637e-02,1.633111685514450073e-01,1.411667019128799438e-01,-1.617951244115829468e-01,-1.666083000600337982e-03,1.264290809631347656e-01,1.653567105531692505e-01,1.059553027153015137e-01,-1.246253177523612976e-01,3.575162217020988464e-02,-3.730134069919586182e-01,1.351619064807891846e-01,1.167619302868843079e-01,-1.328440010547637939e-01,9.186208993196487427e-02,-1.919658929109573364e-01,7.041176408529281616e-02,-9.301847219467163086e-02,-1.658367365598678589e-01,4.765271767973899841e-02,-3.029810264706611633e-03,1.116564497351646423e-01,4.118661209940910339e-02,1.400161981582641602e-01,5.450241267681121826e-02,2.369318343698978424e-02,9.190236032009124756e-02,6.783793121576309204e-02,4.870310425758361816e-02,-8.259112387895584106e-02,-1.351053174585103989e-02,4.092309996485710144e-02,1.624761521816253662e-01,1.012409031391143799e-01,-1.161414086818695068e-01
1.665187478065490723e-01,-1.632859110832214355e-01,9.410225600004196167e-02,1.594360917806625366e-01,-8.992832899093627930e-02,2.239112257957458496e-01,-3.241802155971527100e-01,-2.872282266616821289e-01,-4.280074313282966614e-02,1.438423525542020798e-02,-1.153476685285568237e-01,2.016198486089706421e-01,1.842941194772720337e-01,5.631020292639732361e-03,-1.946189254522323608e-01,-4.021676257252693176e-03,9.182019531726837158e-02,1.152870506048202515e-01,7.148489356040954590e-03,1.691569238901138306e-01,-4.557484388351440430e-02,7.020125538110733032e-02,9.410995990037918091e-02,-2.316789776086807251e-01,8.446193486452102661e-02,-4.321930930018424988e-02,4.475562274456024170e-02,-1.335298269987106323e-02,4.193999618291854858e-02,1.475620418787002563e-01,-3.928033262491226196e-02,7.829992473125457764e-02,7.152315229177474976e-02,-1.074920818209648132e-01,3.342598676681518555e-02,1.627274602651596069e-01,-1.793908774852752686e-01,-1.592674106359481812e-01,-1.510323286056518555e-01,6.429355591535568237e-02,-7.197263836860656738e-02,4.233526438474655151e-02,4.935517162084579468e-02,2.087828218936920166e-01,5.655055865645408630e-02
-7.941077649593353271e-02,1.449203640222549438e-01,-1.789637953042984009e-01,-2.658024430274963379e-01,1.005273535847663879e-01,1.428607013076543808e-02,-2.804476320743560791e-01,8.232547640800476074e-01,4.496556520462036133e-02,3.567146882414817810e-02,2.616602554917335510e-02,-7.587351649999618530e-02,-2.105720043182373047e-01,-8.184470236301422119e-02,-6.352193653583526611e-02,1.336258351802825928e-01,-5.884341523051261902e-02,-3.702113777399063110e-02,1.980502158403396606e-01,-1.304705739021301270e-01,7.776467502117156982e-02,-1.802966892719268799e-01,-1.559503283351659775e-02,-1.604569703340530396e-01,7.745654787868261337e-03,2.272121608257293701e-01,2.148989737033843994e-01,-1.927006095647811890e-01,-5.388201028108596802e-02,-9.077253937721252441e-02,-1.139306798577308655e-01,-2.034689486026763916e-01,-1.487690657377243042e-01,4.264435172080993652e-02,4.478726685047149658e-01,-3.565743863582611084e-01,5.118791460990905762e-01,-1.234164088964462280e-01,-6.241634488105773926e-02,5.214948207139968872e-02,2.597985090687870979e-03,-1.636535376310348511e-01,-1.078541427850723267e-01,2.553842263296246529e-03,2.250350778922438622e-03
-3.014716804027557373e-01,-1.992369294166564941e-01,-1.147102192044258118e-01,-2.158132046461105347e-01,1.446491181850433350e-01,-3.254720270633697510e-01,1.872138120234012604e-02,6.593184471130371094e-01,7.418056577444076538e-02,-1.293555647134780884e-01,-2.133767586201429367e-03,-1.148354411125183105e-01,-2.285685837268829346e-01,-3.967255055904388428e-01,9.718210250139236450e-02,2.611441612243652344e-01,-3.085926473140716553e-01,1.710794121026992798e-01,5.108896493911743164e-01,-2.611814737319946289e-01,2.501845173537731171e-02,-3.376511633396148682e-01,-4.731970429420471191e-01,-7.260899245738983154e-02,6.005777046084403992e-02,-6.664768606424331665e-02,4.805308878421783447e-01,-7.384403795003890991e-02,9.602452814579010010e-02,-2.571972310543060303e-01,-1.833898574113845825e-01,-2.207929044961929321e-01,-1.893377006053924561e-01,1.080358847975730896e-01,5.288911461830139160e-01,-3.492758274078369141e-01,1.961961090564727783e-01,5.069728195667266846e-02,3.107225894927978516e-01,7.372271269559860229e-02,2.207037247717380524e-02,-1.605261415243148804e-01,-1.003689542412757874e-01,-2.177080512046813965e-01,1.136339679360389709e-01
-8.882180601358413696e-02,-4.658538103103637695e-01,-6.366661190986633301e-02,2.929082256741821766e-04,3.941106200218200684e-01,-9.063364565372467041e-02,1.136941984295845032e-01,1.308391451835632324e+00,8.545738458633422852e-02,-2.892337441444396973e-01,1.098333150148391724e-01,-2.024573832750320435e-01,8.458938449621200562e-03,-9.507775902748107910e-01,1.539385467767715454e-01,5.936868786811828613e-01,-1.478685736656188965e-01,-9.926461428403854370e-02,6.327875256538391113e-01,-5.103467702865600586e-01,1.404485106468200684e-01,-1.347497254610061646e-01,-1.182506456971168518e-01,-1.048633530735969543e-01,1.702267676591873169e-01,2.003611624240875244e-01,5.853744149208068848e-01,-6.696513891220092773e-01,1.706972718238830566e-01,-2.207153141498565674e-01,-4.780540466308593750e-01,-1.762077510356903076e-01,-8.658593893051147461e-02,4.856960773468017578e-01,1.278316974639892578e+00,-4.491286873817443848e-01,5.930107831954956055e-01,1.546958684921264648e-01,5.268388986587524414e-01,1.181611567735671997e-01,2.675148099660873413e-02,-2.587904334068298340e-01,-2.407639622688293457e-01,-1.501451134681701660e-01,1.043776720762252808e-01
-2.617133557796478271e-01,4.470966383814811707e-02,-1.481621861457824707e-01,-2.604242563247680664e-01,1.248140782117843628e-01,-2.648217678070068359e-01,-2.199632115662097931e-03,1.164709478616714478e-01,2.826104164123535156e-01,-2.017690986394882202e-01,9.184091351926326752e-03,1.596721704117953777e-04,-9.894253313541412354e-02,1.937127560377120972e-01,-8.881679922342300415e-02,8.425646275281906128e-02,-1.483636796474456787e-01,2.815872728824615479e-01,-1.028305888175964355e-01,1.604153811931610107e-01,-3.424949944019317627e-01,-3.377687335014343262e-01,-1.952130198478698730e-01,-1.974146217107772827e-01,9.031940996646881104e-02,-1.687898784875869751e-01,3.074299395084381104e-01,3.093730509281158447e-01,-6.253657490015029907e-02,-1.528081893920898438e-01,2.395176589488983154e-01,-3.552022576332092285e-01,-1.636000126600265503e-01,1.225539892911911011e-01,3.612608835101127625e-02,-1.296524852514266968e-01,4.777866899967193604e-01,-1.912367939949035645e-01,-2.766389250755310059e-01,-8.145476877689361572e-02,-2.107330560684204102e-01,-1.445509344339370728e-01,-1.836169064044952393e-01,-1.976650059223175049e-01,-9.780451655387878418e-02
1.121947616338729858e-01,-8.431710302829742432e-02,2.580858767032623291e-01,1.294094137847423553e-02,-2.110228538513183594e-01,2.431277483701705933e-01,-6.451102495193481445e-01,4.219831824302673340e-01,8.609921485185623169e-02,7.289307564496994019e-02,-3.015544265508651733e-02,1.654466837644577026e-01,3.821637034416198730e-01,1.296071112155914307e-01,-2.220274507999420166e-01,5.916979163885116577e-02,7.032816112041473389e-02,2.138498611748218536e-02,2.230830304324626923e-02,-9.152314066886901855e-02,-6.810710579156875610e-02,1.719128489494323730e-01,6.328219175338745117e-01,3.248126208782196045e-01,-5.753724649548530579e-02,6.804633140563964844e-02,-1.331017073243856430e-02,1.340190880000591278e-02,1.084816008806228638e-01,3.258555009961128235e-02,4.838401824235916138e-02,-1.778248548507690430e-01,1.176305785775184631e-01,4.366890341043472290e-02,2.957042455673217773e-01,1.319169700145721436e-01,6.845659613609313965e-01,2.863036990165710449e-01,2.279346622526645660e-02,2.163633108139038086e-01,1.429196596145629883e-01,-5.104394257068634033e-02,1.760276854038238525e-01,-7.873605005443096161e-03,1.751794070005416870e-01
3.173303604125976562e-01,6.221914291381835938e-02,7.601639628410339355e-02,1.239197179675102234e-01,2.747184634208679199e-01,1.847490966320037842e-01,5.211616158485412598e-01,-5.602815747261047363e-01,2.321100234985351562e-01,-7.047628611326217651e-02,3.901173546910285950e-02,1.320895105600357056e-01,1.532273888587951660e-01,1.853401213884353638e-01,6.245359033346176147e-02,6.332395225763320923e-02,3.081509172916412354e-01,3.959833085536956787e-01,8.885892480611801147e-02,3.318982720375061035e-01,-4.547035694122314453e-01,6.824187934398651123e-02,7.627405971288681030e-02,6.680727005004882812e-01,4.971509426832199097e-02,1.689017266035079956e-01,-5.726807713508605957e-01,1.704758852720260620e-01,9.362342208623886108e-02,1.565367132425308228e-01,2.820900380611419678e-01,2.558518350124359131e-01,2.252946645021438599e-01,1.020151097327470779e-02,-4.266126155853271484e-01,2.552638351917266846e-01,-2.526475489139556885e-01,-5.251631606370210648e-03,-3.714139759540557861e-01,-4.356002435088157654e-02,1.407375335693359375e-01,1.579231023788452148e-01,3.636034205555915833e-02,-1.876191422343254089e-02,-1.190053075551986694e-01
