1.108174696564674377e-01,-1.160216517746448517e-03,-1.996641159057617188e-01,4.880299046635627747e-02,-2.361199110746383667e-01,-1.638097763061523438e-01,-7.062188535928726196e-02,-2.388192154467105865e-02,1.206610873341560364e-01,-1.331079453229904175e-01,-9.117824584245681763e-02,-2.586282044649124146e-02,-1.036699339747428894e-01,1.090974546968936920e-02,9.202246554195880890e-03,-1.849034577608108521e-01,-6.216729059815406799e-03,-1.279370486736297607e-01,2.953554131090641022e-02,-1.497097909450531006e-01,8.199715614318847656e-02,-1.241492778062820435e-01,1.658699065446853638e-01,1.064240187406539917e-01,8.842159062623977661e-02,-1.890692561864852905e-01,-5.084954947233200073e-02,-9.501780569553375244e-02,2.079767435789108276e-01,2.810325324535369873e-01
-2.028453350067138672e-01,-2.505223751068115234e-01,-1.893904507160186768e-01,-2.516890168190002441e-01,-4.022269695997238159e-02,1.456228047609329224e-01,-4.584981501102447510e-02,-2.992528676986694336e-02,-2.263282611966133118e-02,3.960054516792297363e-01,1.524914205074310303e-01,4.248591139912605286e-02,-1.280970871448516846e-01,3.459656238555908203e-01,1.087083816528320312e-01,1.614081114530563354e-02,-1.590681225061416626e-01,-7.258846610784530640e-02,-2.332114130258560181e-01,-2.368786036968231201e-01,1.904447525739669800e-01,-4.691962897777557373e-02,6.770867854356765747e-02,5.598885565996170044e-02,-1.166211143136024475e-01,-3.072171807289123535e-01,-1.064731776714324951e-01,-4.440484046936035156e-01,-7.758118212223052979e-02,-6.644980609416961670e-02
-4.448738694190979004e-01,-2.668811082839965820e-01,2.961430251598358154e-01,2.407379597425460815e-01,1.683700233697891235e-01,-5.163996815681457520e-01,8.272731900215148926e-01,-4.417773485183715820e-01,8.253300786018371582e-01,2.973265349864959717e-01,5.820204019546508789e-01,-6.949644088745117188e-01,-7.656330466270446777e-01,2.579677402973175049e-01,-4.264021217823028564e-01,-6.523737311363220215e-01,-3.452088683843612671e-02,1.582463383674621582e-01,1.151572018861770630e-01,1.010829955339431763e-01,7.076089978218078613e-01,-1.779591560363769531e+00,1.094388514757156372e-01,-1.083278842270374298e-02,-2.326671332120895386e-01,-6.853687167167663574e-01,-3.681370913982391357e-01,-6.942563056945800781e-01,7.324615120887756348e-02,1.147145554423332214e-01
-2.456029355525970459e-01,-3.802913129329681396e-01,1.380046755075454712e-01,8.806556463241577148e-02,1.003816053271293640e-01,-3.090318143367767334e-01,1.842591762542724609e-01,-4.488255456089973450e-02,-6.010239124298095703e-01,7.750140130519866943e-02,2.647496163845062256e-01,-5.087006837129592896e-02,-1.616404578089714050e-02,1.740837246179580688e-01,-5.751044750213623047e-01,-5.509075522422790527e-01,-7.970326393842697144e-02,-5.676141008734703064e-02,7.408706843852996826e-02,1.872872263193130493e-01,2.741765975952148438e-01,1.274724453687667847e-01,8.315009996294975281e-03,2.844559550285339355e-01,-6.319010853767395020e-01,-3.189863860607147217e-01,-1.026397824287414551e+00,-4.477118551731109619e-01,-1.792280226945877075e-01,3.319119513034820557e-01
-5.804051458835601807e-02,2.118894308805465698e-01,-3.972726315259933472e-02,1.946688592433929443e-01,-2.285968810319900513e-01,-2.198916822671890259e-01,2.067756354808807373e-01,-1.887840330600738525e-01,-3.126268088817596436e-01,7.346528768539428711e-01,1.653106361627578735e-01,-1.593938320875167847e-01,-2.397928684949874878e-01,-3.439105451107025146e-01,7.846500724554061890e-03,-4.626750573515892029e-02,1.550686955451965332e-01,5.312874540686607361e-02,4.468987882137298584e-02,1.183561161160469055e-01,1.187976747751235962e-01,-3.770924210548400879e-01,-1.157915219664573669e-01,3.118979632854461670e-01,-8.147049695253372192e-02,1.266062855720520020e-01,1.563131213188171387e-01,1.186053827404975891e-01,1.015027463436126709e-01,-1.290942132472991943e-01
-3.301523393020033836e-03,-9.324574470520019531e-02,-1.144654005765914917e-01,-3.729622811079025269e-02,3.440884053707122803e-01,6.580823659896850586e-02,1.403477136045694351e-02,2.174152433872222900e-01,2.754286117851734161e-02,1.594234704971313477e-01,-4.484829306602478027e-01,1.915728487074375153e-02,-1.526906788349151611e-01,3.037692047655582428e-02,1.863186210393905640e-01,-4.256330057978630066e-02,2.164719067513942719e-02,-5.489129200577735901e-02,1.215841099619865417e-01,1.364990025758743286e-01,-3.352347612380981445e-01,-1.208869554102420807e-02,-1.305975317955017090e-01,-2.016860693693161011e-01,1.181733831763267517e-01,1.263970285654067993e-01,1.399109661579132080e-01,1.583269238471984863e-01,-2.180953882634639740e-02,-3.863213360309600830e-01
-1.582682281732559204e-01,4.473575577139854431e-02,-1.296022832393646240e-01,-1.763674169778823853e-01,1.078590303659439087e-01,1.599988341331481934e-01,-3.549014329910278320e-01,1.821685135364532471e-01,-1.574706435203552246e-01,-9.764241427183151245e-02,-4.609963893890380859e-01,2.195551246404647827e-01,-4.317506402730941772e-02,-2.878815829753875732e-01,1.164794266223907471e-01,2.530870772898197174e-02,9.697831422090530396e-02,-7.091746479272842407e-02,-2.009738832712173462e-01,-1.232873052358627319e-01,-5.745633840560913086e-01,1.777623444795608521e-01,-3.424033522605895996e-01,-3.545656204223632812e-01,-8.342371322214603424e-03,3.079077899456024170e-01,1.287627518177032471e-01,1.627599895000457764e-01,-3.113629482686519623e-02,-5.382130146026611328e-01
-7.548086643218994141e-01,-5.497020483016967773e-01,-2.459349296987056732e-02,-5.433440953493118286e-02,-1.290288865566253662e-01,-5.179718136787414551e-01,2.752227783203125000e-01,-2.962960302829742432e-01,6.614601016044616699e-01,5.560586601495742798e-02,3.958800435066223145e-01,-3.207912147045135498e-01,-1.907697319984436035e-01,8.857620954513549805e-01,-3.819653391838073730e-01,-3.323797285556793213e-01,1.121959537267684937e-01,-2.062709257006645203e-02,-1.164454296231269836e-01,9.712452441453933716e-02,4.859962761402130127e-01,-2.620358467102050781e-01,-1.359270960092544556e-01,1.222285553812980652e-01,-1.211084127426147461e-01,-6.326754093170166016e-01,-1.730187386274337769e-01,-4.292962849140167236e-01,3.418976664543151855e-01,3.941055536270141602e-01
-4.236201047897338867e-01,-6.153599619865417480e-01,5.757289007306098938e-02,3.625403717160224915e-02,-9.947864711284637451e-02,-3.631356060504913330e-01,3.688285648822784424e-01,-3.258211612701416016e-01,-1.879821568727493286e-01,-1.773063838481903076e-01,1.332929879426956177e-01,-2.394456230103969574e-02,-5.724418163299560547e-02,2.917579114437103271e-01,-3.136765360832214355e-01,-5.224853754043579102e-01,-2.294017970561981201e-01,3.975968435406684875e-02,3.445320725440979004e-01,3.677651584148406982e-01,4.137626290321350098e-01,-2.619985863566398621e-02,6.899443268775939941e-02,6.912176311016082764e-02,-3.010992705821990967e-01,-4.354702234268188477e-01,-7.925397157669067383e-01,-3.030986189842224121e-01,-5.936221405863761902e-02,2.795702219009399414e-01
1.673551499843597412e-01,-7.473031431436538696e-02,1.930358856916427612e-01,-9.147283434867858887e-02,1.677839457988739014e-01,6.193586159497499466e-03,-3.018858656287193298e-02,-1.516663283109664917e-01,-1.895733475685119629e-01,2.716720476746559143e-02,1.737455576658248901e-01,2.252022624015808105e-01,1.228245068341493607e-02,-8.373651653528213501e-02,-1.238140091300010681e-01,-1.357774343341588974e-02,-7.596487551927566528e-02,8.361232280731201172e-02,-2.285260856151580811e-01,4.000812396407127380e-02,1.474463343620300293e-01,1.654660105705261230e-01,-5.340345203876495361e-02,1.660541743040084839e-01,7.957421243190765381e-02,-7.652568817138671875e-02,5.772650986909866333e-02,1.821455806493759155e-01,-1.543678343296051025e-01,-2.839653789997100830e-01
-1.742424964904785156e-01,-6.917360424995422363e-02,-4.375877603888511658e-02,7.781626284122467041e-02,-1.077342405915260315e-01,-9.444959461688995361e-02,2.432916015386581421e-01,-1.799580156803131104e-01,-1.054660305380821228e-01,-1.580589115619659424e-01,-2.189710438251495361e-01,-1.813262104988098145e-01,2.513977289199829102e-01,6.946737319231033325e-02,1.401430964469909668e-01,-7.771255820989608765e-02,-5.700626969337463379e-01,-2.478193957358598709e-03,2.502823434770107269e-02,-8.365335315465927124e-02,-1.385324597358703613e-01,-4.085247814655303955e-01,-7.619581371545791626e-02,-8.001333475112915039e-02,-1.610502600669860840e-01,-9.762235730886459351e-02,-1.528855264186859131e-01,-3.553093969821929932e-01,1.426381468772888184e-01,1.007929742336273193e-01
-2.480217367410659790e-01,-1.065773844718933105e+00,1.215737387537956238e-01,1.406092941761016846e-01,2.704741358757019043e-01,-5.444877147674560547e-01,7.711600065231323242e-01,-1.660384088754653931e-01,-3.213474154472351074e-01,1.693360209465026855e-01,6.401318311691284180e-01,-7.449239492416381836e-01,5.111518874764442444e-02,4.668273329734802246e-01,-6.472125649452209473e-01,-8.700132966041564941e-01,-1.519055515527725220e-01,3.568456172943115234e-01,2.273900955915451050e-01,3.884402513504028320e-01,8.540253043174743652e-01,-3.506377637386322021e-01,4.787180945277214050e-02,1.864235699176788330e-01,-1.052216887474060059e+00,-3.148516714572906494e-01,-8.441602587699890137e-01,-5.736775398254394531e-01,5.805331841111183167e-02,7.678458690643310547e-01
-4.309908151626586914e-01,-9.286733865737915039e-01,2.621525526046752930e-01,2.846481502056121826e-01,4.017695609945803881e-04,-4.953762590885162354e-01,1.284497857093811035e+00,-8.941884338855743408e-02,2.974729835987091064e-01,1.139650568366050720e-01,6.148508787155151367e-01,-8.741487264633178711e-01,-1.750208586454391479e-01,8.862656950950622559e-01,-4.580044150352478027e-01,-5.444789528846740723e-01,-3.745750486850738525e-01,2.723008990287780762e-01,4.026707708835601807e-01,2.218181043863296509e-01,8.940201997756958008e-01,-6.227646470069885254e-01,1.929558217525482178e-01,9.747769683599472046e-02,-9.590508043766021729e-02,-2.589907646179199219e-01,-2.776355743408203125e-01,-9.588119387626647949e-01,3.468503355979919434e-01,2.505708634853363037e-01
-7.984476163983345032e-03,-3.152169659733772278e-02,-1.231512501835823059e-01,-4.487196728587150574e-02,-3.314764797687530518e-01,-3.164680302143096924e-01,-4.357874393463134766e-01,-4.753928482532501221e-01,1.153901517391204834e-01,3.171579167246818542e-02,-7.613557577133178711e-02,9.958947449922561646e-02,-1.508174538612365723e-01,1.379886176437139511e-02,-2.058086246252059937e-01,-2.633085548877716064e-01,-3.970365226268768311e-02,-7.002348452806472778e-02,-6.349711120128631592e-02,-1.557059586048126221e-01,3.731615096330642700e-02,5.986350402235984802e-02,2.237435616552829742e-02,4.972346499562263489e-02,-1.027941554784774780e-01,-3.443548977375030518e-01,-2.208174616098403931e-01,2.375060319900512695e-01,1.783406585454940796e-01,5.552881956100463867e-02
-8.149474859237670898e-02,9.056717157363891602e-02,4.527486488223075867e-02,5.562534183263778687e-02,7.798361033201217651e-02,3.564620157703757286e-03,-4.653037339448928833e-02,3.542676866054534912e-01,4.572380781173706055e-01,1.317037642002105713e-01,6.478728353977203369e-02,1.835526674985885620e-01,3.442132174968719482e-01,7.260853052139282227e-02,2.100958973169326782e-01,2.075357288122177124e-01,4.918100237846374512e-01,4.856667667627334595e-02,-1.227701231837272644e-01,6.893327832221984863e-02,-7.852604240179061890e-02,6.605572253465652466e-02,-2.644375860691070557e-01,-1.792747229337692261e-01,8.622863143682479858e-02,1.452882438898086548e-01,4.883247613906860352e-02,-1.252925693988800049e-01,-1.360260248184204102e-01,1.336721032857894897e-01
-7.186080813407897949e-01,-5.636938214302062988e-01,1.039836108684539795e-01,1.457974910736083984e-01,1.604983955621719360e-01,-4.475912749767303467e-01,7.953817844390869141e-01,-4.752303063869476318e-01,7.100543379783630371e-01,5.186350345611572266e-01,5.758420228958129883e-01,-5.625877380371093750e-01,-3.346405029296875000e-01,3.463760614395141602e-01,-3.738287985324859619e-01,-5.522203445434570312e-01,-9.925727546215057373e-02,1.604578942060470581e-01,6.517936289310455322e-02,3.079613670706748962e-02,4.384811222553253174e-01,-3.573312759399414062e-01,5.508140102028846741e-02,1.692804098129272461e-01,-2.904096543788909912e-01,-7.816091179847717285e-01,-3.776518106460571289e-01,-7.208903431892395020e-01,4.089334309101104736e-01,2.922952473163604736e-01
-1.378656327724456787e-01,6.383401900529861450e-02,8.927515149116516113e-02,1.297620087862014771e-01,-8.206913620233535767e-02,-2.040638588368892670e-02,3.809000551700592041e-02,-2.490336894989013672e-01,-1.247463896870613098e-01,-7.154499739408493042e-02,3.183194696903228760e-01,-1.591416895389556885e-01,1.431210488080978394e-01,1.622515618801116943e-01,-1.458500623703002930e-01,-2.874307930469512939e-01,2.684701383113861084e-01,-1.105952709913253784e-01,9.581680595874786377e-02,7.787419017404317856e-03,-5.813998356461524963e-02,-1.461483091115951538e-01,1.351781338453292847e-01,1.307300478219985962e-01,-3.076766431331634521e-01,-4.018468856811523438e-01,-1.457909494638442993e-01,-7.830657809972763062e-02,-9.699648618698120117e-02,-1.432901173830032349e-01
4.858785867691040039e-02,1.749839261174201965e-02,-6.497316807508468628e-02,-4.297063127160072327e-02,2.124728113412857056e-01,-2.237243056297302246e-01,1.940226703882217407e-01,-1.763934791088104248e-01,2.618119120597839355e-01,-1.411467939615249634e-01,-1.534458901733160019e-02,5.054439231753349304e-02,-1.283200830221176147e-01,1.141346693038940430e-01,-2.714146673679351807e-01,-1.526558697223663330e-01,2.004877477884292603e-01,7.274483144283294678e-02,1.496568769216537476e-01,-1.867917776107788086e-01,1.511909216642379761e-01,1.926373839378356934e-01,-1.639045961201190948e-02,1.120845079421997070e-01,-1.611274331808090210e-01,-1.304448693990707397e-01,-3.134037926793098450e-02,-6.806920468807220459e-02,2.345516234636306763e-01,1.546419411897659302e-01
5.421841889619827271e-02,1.266088336706161499e-01,3.962072357535362244e-02,1.042988896369934082e-01,-1.366371363401412964e-01,-3.153910487890243530e-02,9.712819010019302368e-02,1.348605602979660034e-01,-1.272451430559158325e-01,4.101460054516792297e-02,1.099522560834884644e-01,-1.248576119542121887e-01,8.765905350446701050e-02,-2.396768927574157715e-01,1.952260546386241913e-02,7.696107029914855957e-02,3.331834375858306885e-01,2.749532163143157959e-01,-1.324174106121063232e-01,9.231632202863693237e-02,8.590914309024810791e-02,-2.816945612430572510e-01,-1.228781938552856445e-01,-1.619901061058044434e-01,8.653219044208526611e-02,1.005676537752151489e-01,4.718893021345138550e-02,1.681461036205291748e-01,3.054784536361694336e-01,-2.817660868167877197e-01
-1.190058812499046326e-01,8.066179603338241577e-02,1.479369997978210449e-01,6.097412109375000000e-02,4.164752960205078125e-01,-2.326190769672393799e-01,-6.621990352869033813e-02,1.295376121997833252e-01,2.713584601879119873e-01,1.621203683316707611e-02,-2.061093598604202271e-01,-3.048816695809364319e-02,5.449258163571357727e-02,1.326063368469476700e-02,-2.319920361042022705e-01,-9.872527420520782471e-02,-1.289135068655014038e-01,-2.443037368357181549e-02,-5.179951786994934082e-01,9.918374568223953247e-02,-2.387657463550567627e-01,-5.562030673027038574e-01,2.962893620133399963e-02,-1.071972995996475220e-01,-6.356754899024963379e-02,-1.229424625635147095e-01,-1.765386760234832764e-01,-1.070781424641609192e-02,1.560608297586441040e-01,-3.377109467983245850e-01
-2.994221448898315430e-02,-4.550253972411155701e-02,-1.391564309597015381e-01,-2.701155282557010651e-02,1.068096682429313660e-01,6.788740307092666626e-02,1.370476186275482178e-01,-1.568798571825027466e-01,-1.346662640571594238e-01,-1.385708451271057129e-01,6.713195238262414932e-03,9.627213329076766968e-02,1.451035290956497192e-01,-5.930282548069953918e-02,1.649616658687591553e-01,1.180290281772613525e-01,4.665185511112213135e-02,-6.875307112932205200e-02,-2.240029908716678619e-02,2.009405987337231636e-03,-2.863974869251251221e-01,-1.187473237514495850e-01,-4.921263828873634338e-02,-2.459678649902343750e-01,1.191777959465980530e-01,-1.258848011493682861e-01,-1.379572320729494095e-02,-6.061144918203353882e-02,-8.630129694938659668e-02,1.273346096277236938e-01
-3.612381964921951294e-02,1.356321722269058228e-01,4.276210092939436436e-04,1.241866275668144226e-01,-1.761308312416076660e-01,1.651522517204284668e-01,-2.763096615672111511e-02,1.100350096821784973e-01,-4.821594804525375366e-02,6.422129273414611816e-02,1.267620772123336792e-01,-3.055560775101184845e-02,-4.864172544330358505e-03,-4.039714857935905457e-02,-1.921480447053909302e-01,-2.356042712926864624e-01,-5.807474628090858459e-02,1.124021410942077637e-01,4.579086601734161377e-02,-1.366421580314636230e-01,-5.957270413637161255e-02,5.701144784688949585e-02,1.177994906902313232e-01,1.334753036499023438e-01,-1.384892165660858154e-01,-1.620828509330749512e-01,1.613903492689132690e-01,2.428968548774719238e-01,8.012568950653076172e-02,3.498424589633941650e-02
-2.124820947647094727e-01,-4.825423359870910645e-01,1.667785793542861938e-01,-1.146746426820755005e-01,1.355113983154296875e-01,-2.180824279785156250e-01,-2.065216153860092163e-01,-1.058928593993186951e-01,4.190405607223510742e-01,-2.274655699729919434e-01,2.819565832614898682e-01,-3.011423647403717041e-01,1.629282087087631226e-01,5.102649927139282227e-01,-4.315179213881492615e-02,-5.332079157233238220e-02,-7.396350055932998657e-02,6.688670068979263306e-02,-6.653304398059844971e-02,1.793428212404251099e-01,4.983407855033874512e-01,-1.662023514509201050e-01,-2.184002101421356201e-01,-1.436195522546768188e-01,-8.318609744310379028e-02,-3.006926551461219788e-02,-3.777164965867996216e-02,-2.080563008785247803e-01,1.243141442537307739e-01,4.935553967952728271e-01
-3.078670799732208252e-01,-1.021174430847167969e+00,7.004833221435546875e-02,1.106645986437797546e-01,1.525995507836341858e-02,-6.762831807136535645e-01,7.115793824195861816e-01,6.970895826816558838e-02,4.603236019611358643e-01,4.338462054729461670e-01,7.956809401512145996e-01,-9.309740662574768066e-01,2.692854106426239014e-01,3.584516942501068115e-01,-5.252695083618164062e-01,-4.583750367164611816e-01,9.798740036785602570e-03,2.484747469425201416e-01,3.620338439941406250e-01,4.829685389995574951e-01,6.993019580841064453e-01,-3.936083614826202393e-01,4.251466598361730576e-03,8.386360108852386475e-02,-5.298371315002441406e-01,-2.490587085485458374e-01,-2.058633565902709961e-01,-7.143688201904296875e-01,1.397537440061569214e-01,4.774204790592193604e-01
-2.287314832210540771e-02,-1.681669652462005615e-01,-6.680123507976531982e-02,1.530150920152664185e-01,-1.177676171064376831e-01,9.304111450910568237e-02,1.152296215295791626e-01,-8.028138428926467896e-02,3.649293631315231323e-02,-5.912469327449798584e-02,-7.385770976543426514e-02,4.346267506480216980e-02,8.940608054399490356e-02,-3.460574150085449219e-02,2.802192270755767822e-01,1.838877648115158081e-01,1.791694946587085724e-02,-1.052312776446342468e-01,7.262036204338073730e-03,1.059368103742599487e-01,-2.377223968505859375e-01,-3.235552832484245300e-02,-2.801541686058044434e-01,-1.362516134977340698e-01,1.372366249561309814e-01,-1.024108156561851501e-01,-5.756131932139396667e-02,-1.863150745630264282e-01,6.153684481978416443e-02,-2.871497161686420441e-02
